-0.335411968
-0.060908704
0.068812056
-0.033379816
0.262602448
-0.491316832
-0.835287040
-0.236091120
-0.127017600
0.509907712
-1.073808192
-1.231588240
-0.036263300
-0.371893696
0.443656416
0.151752400
-0.286266720
-0.233364592
0.178130192
0.076961808
0.212148080
0.248694704
-0.070423720
0.084993104
-0.259158992
-0.128189520
0.035368180
0.051665860
0.218507200
-0.096516344
0.527880256
0.412604320
0.618314432
0.803105280
-1.066664936
0.512398304
0.440099776
0.368862560
-0.648277184
-0.329259584
1.198816064
-0.411142112
1.085524560
0.986680640
-0.538353216
0.752598208
0.710794240
1.102951888
1.147675392
-3.256806128
-0.249228768
-0.240819296
0.140891920
-0.124126776
0.282843904
0.837346240
-0.052151980
-0.423796896
0.430353568
-0.598684160
0.805483712
0.290699712
0.179560384
0.372108192
-0.804562944
0.017491754
-0.075948248
-0.036876536
-0.198213824
0.140465248
-0.230062400
0.354164736
1.315499904
1.029484868
-2.116479632
-0.900240064
-0.596173888
-0.977402176
-0.825910016
1.796957504
-0.342432288
-0.491277408
0.221803584
0.448913568
0.375540544
-0.297614784
-0.626042112
-0.012086155
-0.047209596
0.204199136
-0.203055344
0.561474560
0.272679744
-0.001050129
-0.539282432
1.007751465
1.677382720
-0.340869344
-0.315395072
-1.484392416
1.388835072
1.365701440
-1.447735424
-1.363466496
0.945887808
0.168494000
0.440949984
0.125507760
-0.336229152
-0.270770720
-0.037031504
0.635569664
-0.095556632
0.236495440
0.011343886
-0.236249424
0.004532973
0.365380480
0.173789632
0.475147072
0.820721984
0.430112608
0.444934528
0.590355904
0.459427488
0.122303688
0.387759552
0.446404096
0.001544139
0.162058832
0.390457216
0.053879416
0.528416992
0.652149056
-0.023293340
0.589820416
0.481135616
-0.139067840
0.126767752
0.075878872
-0.349428224
0.407624928
0.658264256
0.179423536
-0.084385568
0.131902488
0.546997760
0.242532768
0.218049344
0.038965600
-0.022372546
-0.191973680
0.851519424
0.342357216
-0.084049768
0.773270400
0.492675552
0.230469344
0.384930368
0.145476032
0.668126912
0.215292096
0.240785424
0.715025984
0.961851328
0.347592096
0.397269856
0.499544512
0.424367424
-0.019645206
0.713212800
1.346763744
0.496698656
0.718254528
1.237484816
0.582971712
0.224540864
0.455942016
0.801997696
0.609481856
0.655544192
0.212921808
0.202326704
0.600632768
0.637802944
0.235941216
0.378010752
0.447970208
0.376406944
0.078724368
0.477450304
0.569634624
0.513583616
0.299732736
0.304136352
0.173176224
0.459006688
0.393432576
0.028718892
0.391358336
0.095610400
0.494720160
0.003382376
0.165544720
0.198578640
-0.185097872
0.181014112
0.168569120
0.594328000
0.287715552
-0.152839072
0.100506272
0.132344096
0.265683296
-0.097316440
0.108366128
0.436534272
-0.012686594
0.357520704
0.449521024
-0.066617632
-0.338643072
0.804505984
-0.068437872
0.276020928
0.234046912
0.377748640
1.263708240
0.307093280
-0.113016960
0.321804960
0.202788352
0.165023632
-0.235679024
1.694405888
0.153281088
0.044591828
-0.225362272
0.006302710
1.008813024
0.270560992
0.653127936
0.515833312
0.146079328
-0.006588409
1.437173728
-0.109446344
0.665331328
0.780691328
0.629706048
-0.154362464
0.640308288
0.211957104
-0.176012416
0.457059584
0.591472256
-0.151748880
-0.031686742
0.385056768
0.511313312
0.523609632
-0.017169448
0.113144280
0.136248784
0.291695744
0.305072864
0.133751464
-0.183724672
0.067055128
0.590798272
0.048983672
0.351585440
0.790003776
0.842136896
0.584192256
0.072247768
0.310409184
0.523009120
-0.183352048
0.399400064
-0.184346608
0.592595648
0.386941120
0.432851680
0.710223616
1.148119808
0.759548864
0.724092800
0.478550688
0.294810176
-0.138706464
0.709395200
0.179309088
0.161627696
0.093914696
0.446526304
0.370395872
0.234745328
0.511338880
-0.007623884
0.343812480
0.160671840
0.364296992
0.311332128
0.298528480
-0.155748480
-0.069440336
-0.194461056
-0.035907300
0.477398336
-0.100606208
0.026366916
0.163296656
0.270619232
0.240829168
0.291592640
0.253805600
0.500431296
0.415551744
0.400955040
0.403499040
0.148275168
0.676620288
0.456640096
0.484432832
0.717621248
0.347113120
0.303326496
0.047884760
-0.261754192
0.125680208
-0.093778840
0.376885888
0.943111552
0.925078720
0.305025280
1.480001344
-0.424406016
0.317274272
0.212869248
0.848744128
0.536021056
0.696989696
-0.009861873
0.302747552
0.805081472
0.207008784
0.626776832
0.674188224
0.603121024
0.577243648
-0.063975312
0.211537760
0.353349280
0.777944000
0.702465728
0.408655840
0.793908864
-0.037191644
-0.054524632
0.806065920
0.138015312
0.536120896
0.234144768
0.432329824
0.192402528
0.289485184
-0.030272726
-0.062613844
0.387998144
0.578530816
0.399091968
0.680931520
0.307924960
0.735351424
0.441655136
0.216678880
0.349591360
0.825427456
0.517847168
0.780229888
0.103548592
0.355801376
0.390093760
0.475947328
0.827086080
0.192477616
0.616867392
0.666392832
-0.310416864
0.212320560
0.817637568
0.475931232
0.437057152
0.200863856
-0.164578848
0.285806016
0.642989248
0.225029760
0.276181504
0.027051052
0.342598752
0.205157872
0.014171865
0.708088448
0.269744928
0.370467872
0.084864960
0.428392832
0.452800096
0.120048072
0.358642880
-0.113831152
0.422608320
0.042035924
0.702170752
-0.149005632
0.181708880
0.680098752
0.181909248
0.460665216
0.225235392
0.039493044
0.291280544
0.741796480
-0.098174832
0.658929984
0.022515980
0.024524824
0.534536256
0.722001152
0.739262912
0.552473792
0.282689984
0.371366880
0.727698240
0.397470400
-0.072362032
0.013185724
0.466764480
0.401266496
0.317834944
-0.254542144
-0.140139744
0.296593472
0.142426144
0.309912672
0.459906304
-0.080989760
0.412378752
0.493460608
-0.094009200
0.325082208
0.379732672
0.428553152
0.530084416
0.172695040
0.129268464
0.782758976
-0.030531408
0.831582976
0.003161947
0.790401280
0.236562560
0.007413408
0.423889984
0.200540912
0.333627168
0.004458202
-0.078006896
0.521595968
0.181667504
0.735566272
0.294286208
0.757288384
-0.064499824
0.006209662
0.251065136
0.596872448
0.732081984
0.577589056
-0.034812312
0.410090944
0.319468960
0.416375584
-0.224595216
-0.053915792
-0.105275736
-0.098332872
-0.131736296
0.515075680
0.468826688
0.289727680
0.304462880
-0.064555192
-0.015709056
0.162200976
0.638972672
0.067214320
0.618891328
0.718984704
0.088916448
0.093836688
0.183650416
-0.165371728
0.421291648
-0.175088960
0.218560864
0.274663552
0.302459680
0.500010720
0.037607532
0.366192288
0.464095584
-0.094334288
-0.280771808
-0.230672736
-0.163230560
0.332352384
0.050995672
1.208986160
0.022233410
0.439772928
-0.342629760
0.078768200
0.624411264
0.029189480
0.383941728
0.489185536
0.430473952
0.359730688
0.134970288
0.415552512
-0.037653940
0.642616256
-0.099677104
0.417403200
0.140956000
0.538788416
0.335169728
-0.222104976
0.846618176
-0.158240928
0.131738216
0.577439104
0.228791008
0.224969984
0.135120496
0.376917728
0.523791264
-0.047456220
0.591696576
0.410192224
0.175564208
0.059304240
0.526075904
0.013661996
0.156106240
0.791463424
0.546132544
0.535674816
0.075063864
0.651412032
0.325195616
-0.035082536
0.633183488
0.698869952
-0.101839248
0.643409792
0.539708160
-0.033040878
0.330646560
-0.040251496
-0.232970208
0.077490192
-0.090262832
-0.151247376
0.170919376
0.048124540
0.012382911
0.100750648
0.021774332
0.103019848
-0.071532552
-0.080331664
0.072447568
-0.039116632
2.123864416
-0.068543824
-0.047670988
1.761680000
-0.050524884
-0.080120984
-0.108270272
-0.031290546
-0.074614784
1.911200384
-0.033392786
0.104840544
0.010450895
-0.257551200
0.095348176
-0.108986976
-0.001132123
-0.035095876
0.026817320
-0.147683456
-0.004837795
0.399443328
0.056125604
-0.021818056
1.831876288
